tree
version=v3
num_class=1
num_tree_per_iteration=1
label_index=0
max_feature_idx=5
objective=regression
feature_names=day month year hour weekday weekend
feature_infos=[1:31] [7:9] none [0:23] [0:6] [0:1]
tree_sizes=2580 2662 2670 2671 2680 2692 2683 2679 2682 2690 2676 2679 2687 2676 2672 2684 2678 2687 2685 2685

Tree=0
num_leaves=31
num_cat=0
split_feature=3 4 3 0 1 0 0 0 4 3 4 4 0 0 0 0 3 3 0 0 3 3 3 0 3 1 1 0 0 0
split_gain=760.93 721.684 929.904 95.1658 121.857 264.252 249.387 128.537 89.9619 66.0461 41.8146 40.424 12.7507 6.18992 3.63293 4.35696 2.36858 6.22008 1.30753 4.31705 1.05433 0.397822 0.194739 0.0442998 0.0276305 0.0092177 0.00811859 0.0245404 0.0159351 0.0216204
threshold=8.5000000000000018 4.5000000000000009 17.500000000000004 28.500000000000004 8.5000000000000018 13.500000000000002 3.5000000000000004 24.500000000000004 1.0000000180025095e-35 18.500000000000004 3.5000000000000004 1.5000000000000002 9.5000000000000018 24.500000000000004 15.500000000000002 18.500000000000004 16.500000000000004 13.500000000000002 25.500000000000004 27.500000000000004 19.500000000000004 11.500000000000002 21.500000000000004 19.500000000000004 7.5000000000000009 8.5000000000000018 8.5000000000000018 9.5000000000000018 12.500000000000002 16.500000000000004
decision_type=2 2 2 2 2 2 2 2 2 2 2 2 2 2 2 2 2 2 2 2 2 2 2 2 2 2 2 2 2 2
left_child=18 2 3 4 6 11 -2 8 -8 -4 13 -6 -10 20 -14 -16 17 21 24 -20 -11 -3 -22 25 26 -18 28 -28 -1 -30
right_child=1 16 9 -5 5 -7 7 -9 12 10 -12 -13 14 -15 15 -17 23 -19 19 -21 22 -23 -24 -25 -26 -27 27 -29 29 -31
leaf_value=1.4569235034657644 1.5134455808909821 1.456672933340408 1.560033526087649 1.5517937948994063 1.6104027221229049 1.4557111090969879 1.6318598673795606 1.6132682683133432 1.713228909776106 1.4723091521629921 1.5320491522717146 1.6920832399625356 1.7740002389865177 1.4895529985298903 1.7330908168268291 1.764930966852845 1.4576479628310972 1.4847254020957132 1.4827958919461754 1.4569287825063761 1.4619715211742561 1.4647783187423378 1.4569421012661397 1.4592184386279556 1.4586880413296386 1.4562395373445292 1.4575991530983876 1.4561437951650593 1.4590852636531886 1.4573724283613956
leaf_weight=77 21 41 32 28 28 23 21 34 21 20 32 33 23 26 21 22 21 40 23 54 38 24 39 35 36 26 60 56 27 58
leaf_count=77 21 41 32 28 28 23 21 34 21 20 32 33 23 26 21 22 21 40 23 54 38 24 39 35 36 26 60 56 27 58
internal_value=0 0.674403 1.34529 2.5152 2.71327 1.73483 3.21749 3.69316 4.22699 -0.375164 -0.645194 2.82393 4.67539 -0.910117 4.89133 4.71975 -0.983089 -0.883632 -1.09155 -0.97477 -1.02626 -1.07456 -1.07939 -1.11044 -1.12018 -1.1305 -1.12356 -1.12995 -1.11899 -1.10955
internal_weight=0 649 462 275 247 84 163 142 108 187 155 61 87 123 66 43 187 105 391 77 97 65 77 82 314 47 278 116 162 85
internal_count=1040 649 462 275 247 84 163 142 108 187 155 61 87 123 66 43 187 105 391 77 97 65 77 82 314 47 278 116 162 85
shrinkage=1


Tree=1
num_leaves=31
num_cat=0
split_feature=3 4 3 0 1 0 0 0 4 3 4 4 0 0 0 0 3 3 0 0 0 3 3 3 1 1 0 0 0 0
split_gain=686.74 651.32 839.238 85.8871 109.976 238.487 225.072 116.005 81.1906 59.6066 37.7377 36.4826 11.5075 5.5864 3.27872 3.93216 2.15207 4.83504 2.05836 1.18004 3.89613 0.951536 0.175752 0.0249365 0.0105999 0.00732701 0.0221476 0.0143814 0.0195124 0.0120646
threshold=8.5000000000000018 4.5000000000000009 17.500000000000004 28.500000000000004 8.5000000000000018 13.500000000000002 3.5000000000000004 24.500000000000004 1.0000000180025095e-35 18.500000000000004 3.5000000000000004 1.5000000000000002 9.5000000000000018 24.500000000000004 15.500000000000002 18.500000000000004 17.500000000000004 12.500000000000002 12.500000000000002 25.500000000000004 27.500000000000004 19.500000000000004 21.500000000000004 7.5000000000000009 8.5000000000000018 8.5000000000000018 9.5000000000000018 12.500000000000002 16.500000000000004 6.5000000000000009
decision_type=2 2 2 2 2 2 2 2 2 2 2 2 2 2 2 2 2 2 2 2 2 2 2 2 2 2 2 2 2 2
left_child=19 2 3 4 6 11 -2 8 -8 -4 13 -6 -10 21 -14 -16 17 -3 -19 23 -21 -11 -23 25 -18 27 29 -1 -29 -27
right_child=1 16 9 -5 5 -7 7 -9 12 10 -12 -13 14 -15 15 -17 24 18 -20 20 -22 22 -24 -25 -26 26 -28 28 -30 -31
leaf_value=-0.053646824808863847 4.9149706250145327e-05 -0.053648222352449718 0.04430769889731892 0.036479952758444206 0.092158435072217673 -0.054798599429752515 0.11254272546086992 0.094880703091621402 0.18984331630525136 -0.039030457735061648 0.017722541972761973 0.16975492238998413 0.24757608019787336 -0.022648803233348121 0.20871212255387081 0.23896025744351476 -0.05299108254909516 -0.022254094309531725 -0.040716519186066259 -0.029068054064460426 -0.053641809247158195 -0.04885120689868927 -0.053629156259390021 -0.051970512916644424 -0.054288063878598428 -0.053544431297402634 -0.054387546224253513 -0.051593151798954719 -0.053220345953415182 -0.052073138952255252
leaf_weight=77 21 52 32 28 28 23 21 34 21 20 32 33 23 26 21 22 50 26 36 23 54 38 39 36 23 38 56 27 58 22
leaf_count=77 21 52 32 28 28 23 21 34 21 20 32 33 23 26 21 22 50 26 36 23 54 38 39 36 23 38 56 27 58 22
internal_value=0 0.640683 1.27803 2.38944 2.5776 1.64809 3.05662 3.5085 4.01564 -0.356406 -0.612934 2.68274 4.44162 -0.864612 4.64677 4.48376 -0.933935 -0.848089 -0.659484 -1.03697 -0.926032 -0.974947 -1.02542 -1.06417 -1.06799 -1.06738 -1.07345 -1.06304 -1.05407 -1.0601
internal_weight=0 649 462 275 247 84 163 142 108 187 155 61 87 123 66 43 187 114 62 391 77 97 77 314 73 278 116 162 85 60
internal_count=1040 649 462 275 247 84 163 142 108 187 155 61 87 123 66 43 187 114 62 391 77 97 77 314 73 278 116 162 85 60
shrinkage=0.05


Tree=2
num_leaves=31
num_cat=0
split_feature=3 4 3 0 1 0 0 0 4 3 4 4 0 0 0 0 3 3 0 0 0 0 3 0 3 1 1 0 0 0
split_gain=619.783 587.816 757.413 77.5131 99.2535 215.235 203.127 104.694 73.2745 53.795 34.0583 32.9256 10.3855 5.04173 2.95904 3.54878 1.97698 5.23158 1.06499 3.51626 0.932297 2.40373 0.306897 0.0407847 0.0225052 0.00809724 0.00661265 0.0199883 0.0129792 0.0176099
threshold=8.5000000000000018 4.5000000000000009 17.500000000000004 28.500000000000004 8.5000000000000018 13.500000000000002 3.5000000000000004 24.500000000000004 1.0000000180025095e-35 18.500000000000004 3.5000000000000004 1.5000000000000002 9.5000000000000018 24.500000000000004 15.500000000000002 18.500000000000004 16.500000000000004 13.500000000000002 25.500000000000004 27.500000000000004 10.500000000000002 5.5000000000000009 11.500000000000002 19.500000000000004 7.5000000000000009 8.5000000000000018 8.5000000000000018 9.5000000000000018 12.500000000000002 16.500000000000004
decision_type=2 2 2 2 2 2 2 2 2 2 2 2 2 2 2 2 2 2 2 2 2 2 2 2 2 2 2 2 2 2
left_child=18 2 3 4 6 11 -2 8 -8 -4 13 -6 -10 20 -14 -16 17 22 24 -20 21 -11 -3 25 26 -18 28 -28 -1 -30
right_child=1 16 9 -5 5 -7 7 -9 12 10 -12 -13 14 -15 15 -17 23 -19 19 -21 -22 -23 -24 -25 -26 -27 27 -29 29 -31
leaf_value=-0.050964482418902515 4.669229189554851e-05 -0.051202455163002016 0.042092313637840564 0.034655955196025649 0.087550512381962375 -0.052058669276859454 0.10691559030896142 0.090136670014437509 0.18035114804903668 -0.052089452385902402 0.016836414911085739 0.16126718069567825 0.23519726836163068 -0.021516363845708278 0.19827651750473752 0.22701226418668574 -0.050411442631766917 -0.025591521337628365 -0.027614651296449744 -0.050959719496744653 -0.051161562849064257 -0.029691940740398739 -0.044083351641893392 -0.048887222920145308 -0.049371987664037283 -0.051731495215342593 -0.050354709426561998 -0.051668169615524152 -0.049013494672598662 -0.050559327777089748
leaf_weight=77 21 41 32 28 28 23 21 34 21 25 32 33 23 26 21 22 21 40 23 54 49 23 24 35 36 26 60 56 27 58
leaf_count=77 21 41 32 28 28 23 21 34 21 25 32 33 23 26 21 22 21 40 23 54 49 23 24 35 36 26 60 56 27 58
internal_value=0 0.608648 1.21413 2.26997 2.44872 1.56569 2.90378 3.33308 3.81485 -0.338585 -0.582287 2.5486 4.21954 -0.821381 4.41443 4.25957 -0.887238 -0.796374 -0.985121 -0.87973 -0.926199 -0.827146 -0.971477 -1.00359 -1.01097 -1.02283 -1.01401 -1.01978 -1.00989 -1.00137
internal_weight=0 649 462 275 247 84 163 142 108 187 155 61 87 123 66 43 187 105 391 77 97 48 65 82 314 47 278 116 162 85
internal_count=1040 649 462 275 247 84 163 142 108 187 155 61 87 123 66 43 187 105 391 77 97 48 65 82 314 47 278 116 162 85
shrinkage=0.05


Tree=3
num_leaves=31
num_cat=0
split_feature=3 4 3 0 1 0 0 0 4 3 4 4 0 0 0 0 3 3 0 0 4 0 3 0 3 1 1 0 0 0
split_gain=559.354 530.504 683.565 69.9556 89.5763 194.249 183.322 94.4865 66.1303 48.55 30.7376 29.7153 9.37291 4.55016 2.67054 3.20277 1.78422 4.7215 0.961154 3.17343 0.929271 1.98125 0.276974 0.0368082 0.020311 0.00730776 0.00596791 0.0180735 0.0117138 0.015893
threshold=8.5000000000000018 4.5000000000000009 17.500000000000004 28.500000000000004 8.5000000000000018 13.500000000000002 3.5000000000000004 24.500000000000004 1.0000000180025095e-35 18.500000000000004 3.5000000000000004 1.5000000000000002 9.5000000000000018 24.500000000000004 15.500000000000002 18.500000000000004 16.500000000000004 13.500000000000002 25.500000000000004 27.500000000000004 1.5000000000000002 10.500000000000002 11.500000000000002 19.500000000000004 7.5000000000000009 8.5000000000000018 8.5000000000000018 10.500000000000002 12.500000000000002 16.500000000000004
decision_type=2 2 2 2 2 2 2 2 2 2 2 2 2 2 2 2 2 2 2 2 2 2 2 2 2 2 2 2 2 2
left_child=18 2 3 4 6 11 -2 8 -8 -4 13 -6 -10 20 -14 -16 17 22 24 -20 -11 -22 -3 25 26 -18 28 -28 -1 -30
right_child=1 16 9 -5 5 -7 7 -9 12 10 -12 -13 14 -15 15 -17 23 -19 19 -21 21 -23 -24 -25 -26 -27 27 -29 29 -31
leaf_value=-0.048416259110747997 4.4357492810203916e-05 -0.048642331434459223 0.039987697675314848 0.032923157281974064 0.083172987188611713 -0.049455735476120664 0.10156980270431155 0.085629834892118686 0.17133359454926991 -0.048838183283805847 0.015994595654774457 0.15320382117096223 0.22343741499859357 -0.020440544901738088 0.18836269151596796 0.21566164222630591 -0.047890870769818628 -0.024311944991350174 -0.026233918640924538 -0.048411732746495142 -0.028459153421547104 -0.048793305277824404 -0.041879185056313877 -0.046442861769880571 -0.04690338778826926 -0.049144920821373284 -0.04789613485336304 -0.049156403779983524 -0.046562819900336089 -0.04803136232598075
leaf_weight=77 21 41 32 28 28 23 21 34 21 49 32 33 23 26 21 22 21 40 23 54 23 25 24 35 36 26 66 50 27 58
leaf_count=77 21 41 32 28 28 23 21 34 21 49 32 33 23 26 21 22 21 40 23 54 23 25 24 35 36 26 66 50 27 58
internal_value=0 0.578216 1.15342 2.15647 2.32629 1.4874 2.7586 3.16643 3.62411 -0.321656 -0.553173 2.42117 4.00856 -0.780312 4.19371 4.04659 -0.842876 -0.756555 -0.935865 -0.835744 -0.87989 -0.780997 -0.922903 -0.953409 -0.960417 -0.971692 -0.963312 -0.968787 -0.959391 -0.951298
internal_weight=0 649 462 275 247 84 163 142 108 187 155 61 87 123 66 43 187 105 391 77 97 48 65 82 314 47 278 116 162 85
internal_count=1040 649 462 275 247 84 163 142 108 187 155 61 87 123 66 43 187 105 391 77 97 48 65 82 314 47 278 116 162 85
shrinkage=0.05


Tree=4
num_leaves=31
num_cat=0
split_feature=3 4 3 0 1 0 0 0 4 3 4 4 0 4 4 3 3 0 0 0 3 0 3 3 1 0 1 0 0 0
split_gain=504.817 478.78 616.917 63.1349 80.8426 175.31 165.559 94.3624 69.4698 43.8163 27.7407 26.8181 4.10652 2.16604 3.19285 1.61161 3.67171 1.8501 0.867441 2.86402 0.853667 0.209764 0.32054 0.0183306 0.00644442 0.00577543 0.00538604 0.0164493 0.0108883 0.0105717
threshold=8.5000000000000018 4.5000000000000009 17.500000000000004 28.500000000000004 8.5000000000000018 13.500000000000002 4.5000000000000009 24.500000000000004 1.0000000180025095e-35 18.500000000000004 3.5000000000000004 1.5000000000000002 24.500000000000004 1.5000000000000002 3.5000000000000004 17.500000000000004 12.500000000000002 12.500000000000002 25.500000000000004 27.500000000000004 19.500000000000004 9.5000000000000018 21.500000000000004 7.5000000000000009 8.5000000000000018 12.500000000000002 8.5000000000000018 9.5000000000000018 6.5000000000000009 12.500000000000002
decision_type=2 2 2 2 2 2 2 2 2 2 2 2 2 2 2 2 2 2 2 2 2 2 2 2 2 2 2 2 2 2
left_child=18 2 3 4 6 11 -2 8 -8 -4 12 -6 20 -10 -15 16 25 -18 23 -20 -11 -22 -23 26 -17 -3 29 28 -28 -1
right_child=1 15 9 -5 5 -7 7 -9 13 10 -12 -13 -14 14 -16 24 17 -19 19 -21 21 22 -24 -25 -26 -27 27 -29 -30 -31
leaf_value=-0.045995446265517895 0.017939179694211042 -0.045453873127698899 0.037988311953813539 0.031277000224924578 0.079014337967549059 -0.046982948935550189 0.096491315535136638 0.081348345297224386 0.21193185340274467 -0.032591129541397097 0.015194866673846265 0.14554363327157316 -0.019418517467924036 0.18458021395915264 0.20863341580737724 -0.045518552362918852 -0.017941025959757658 -0.035444558825757769 -0.024922222935635112 -0.045991146398915189 -0.047044085008757452 -0.03743494741973423 -0.046171023022560848 -0.044558219114939374 -0.04652983947940495 -0.046536986343562604 -0.045954667502327969 -0.046633692724364149 -0.044556939737363299 -0.045186639042461618
leaf_weight=77 27 20 32 28 28 23 21 34 22 20 32 33 26 37 22 50 26 36 23 54 35 21 21 36 23 32 38 56 22 85
leaf_count=77 27 20 32 28 28 23 21 34 22 20 32 33 26 37 22 50 26 36 23 54 35 21 21 36 23 32 38 56 22 85
internal_value=0 0.549305 1.09575 2.04865 2.20997 1.41303 2.62067 3.06972 3.55063 -0.305573 -0.525514 2.30011 -0.741296 3.97084 3.87098 -0.800732 -0.726444 -0.562087 -0.889072 -0.793957 -0.835895 -0.883706 -0.83606 -0.912397 -0.916744 -0.922408 -0.915146 -0.920348 -0.908843 -0.911421
internal_weight=0 649 462 275 247 84 163 136 102 187 155 61 123 81 59 187 114 62 391 77 97 77 42 314 73 52 278 116 60 162
internal_count=1040 649 462 275 247 84 163 136 102 187 155 61 123 81 59 187 114 62 391 77 97 77 42 314 73 52 278 116 60 162
shrinkage=0.05


Tree=5
num_leaves=31
num_cat=0
split_feature=3 4 3 0 0 0 0 0 1 1 4 4 0 0 0 3 3 4 0 4 3 3 1 0 0 0 3 3 0 0
split_gain=410.504 413.009 503.352 64.2393 100.437 133.503 112.176 75.2295 48.1615 31.5225 26.5322 23.0397 10.0382 1.73617 5.91502 1.14512 3.17515 0.333724 0.694806 0.18054 0.130107 0.0173132 0.00852606 0.0155777 0.0101245 0.0129547 0.00676387 0.00663595 0.00439106 0.00409715
threshold=8.5000000000000018 4.5000000000000009 18.500000000000004 2.5000000000000004 12.500000000000002 15.500000000000002 24.500000000000004 6.5000000000000009 8.5000000000000018 7.5000000000000009 2.5000000000000004 3.5000000000000004 24.500000000000004 25.500000000000004 27.500000000000004 16.500000000000004 13.500000000000002 1.5000000000000002 10.500000000000002 5.5000000000000009 7.5000000000000009 18.500000000000004 8.5000000000000018 9.5000000000000018 12.500000000000002 16.500000000000004 4.5000000000000009 3.5000000000000004 10.500000000000002 12.500000000000002
decision_type=2 2 2 2 2 2 2 2 2 2 2 2 2 2 2 2 2 2 2 2 2 2 2 2 2 2 2 2 2 2
left_child=13 2 3 -2 7 -6 10 -5 -9 -8 -7 12 17 20 -15 16 19 29 -19 -3 22 -17 24 27 26 -26 -1 -24 -23 -4
right_child=1 15 11 4 5 6 9 8 -10 -11 -12 -13 -14 14 -16 21 -18 18 -20 -21 -22 28 23 -25 25 -27 -28 -29 -30 -31
leaf_value=-0.044080894084080412 0.023795820565687287 -0.044812606625697193 -0.044826761575845572 0.080744630133821854 -0.023173722949239514 0.16686394825959816 0.085861026798374956 0.20391623969819095 0.11608943101708535 0.018507201916930317 0.097154652504693906 0.012207265923331892 -0.0074603660830429618 -0.013506547264430836 -0.043623003842575211 -0.044789870018544405 -0.023815714526507589 -0.032048565420237457 -0.044350226099292442 -0.039580044522881511 -0.040277053729764055 -0.043771587667011086 -0.042655577911780429 -0.04439891755580902 -0.042073124746481581 -0.043349245342157658 -0.043071947533350724 -0.043738734722137455 -0.042882490812278379 -0.043910628557205206
leaf_weight=46 36 34 26 42 31 39 32 37 27 38 21 35 28 23 56 23 36 22 24 32 35 21 26 60 30 59 26 31 41 23
leaf_count=46 36 34 26 42 31 39 32 37 27 38 21 35 28 23 56 23 36 22 24 32 35 21 26 60 30 59 26 31 41 23
internal_value=0 0.466851 0.975318 1.72988 1.89895 1.40129 1.84596 2.65483 3.33729 0.98595 2.84931 -0.471715 -0.675415 -0.829567 -0.697098 -0.786643 -0.715207 -0.830508 -0.769336 -0.845512 -0.863001 -0.872365 -0.870235 -0.876732 -0.865514 -0.858382 -0.874331 -0.864893 -0.863673 -0.887935
internal_weight=0 648 461 303 267 161 130 106 64 70 60 158 123 392 79 187 102 95 46 66 313 85 278 117 161 89 72 57 62 49
internal_count=1040 648 461 303 267 161 130 106 64 70 60 158 123 392 79 187 102 95 46 66 313 85 278 117 161 89 72 57 62 49
shrinkage=0.05


Tree=6
num_leaves=31
num_cat=0
split_feature=3 4 3 0 0 0 0 0 1 1 4 4 0 0 0 3 3 4 0 0 3 3 1 0 0 0 3 3 0 0
split_gain=370.48 372.741 454.276 57.976 90.6448 120.487 101.239 67.8946 43.4657 28.449 23.9454 20.7933 9.05945 1.56689 5.33831 1.03347 2.86558 0.301186 0.627062 0.16919 0.117422 0.0156252 0.00769476 0.0140589 0.00913738 0.0116916 0.0061044 0.00598895 0.00396294 0.00369768
threshold=8.5000000000000018 4.5000000000000009 18.500000000000004 2.5000000000000004 12.500000000000002 15.500000000000002 24.500000000000004 6.5000000000000009 8.5000000000000018 7.5000000000000009 2.5000000000000004 3.5000000000000004 24.500000000000004 25.500000000000004 27.500000000000004 16.500000000000004 13.500000000000002 1.5000000000000002 10.500000000000002 12.500000000000002 7.5000000000000009 18.500000000000004 8.5000000000000018 9.5000000000000018 12.500000000000002 16.500000000000004 4.5000000000000009 3.5000000000000004 10.500000000000002 12.500000000000002
decision_type=2 2 2 2 2 2 2 2 2 2 2 2 2 2 2 2 2 2 2 2 2 2 2 2 2 2 2 2 2 2
left_child=13 2 3 -2 7 -6 10 -5 -9 -8 -7 12 17 20 -15 16 19 29 -19 -3 22 -17 24 27 26 -26 -1 -24 -23 -4
right_child=1 15 11 4 5 6 9 8 -10 -11 -12 -13 -14 14 -16 21 -18 18 -20 -21 -22 28 23 -25 25 -27 -28 -29 -30 -31
leaf_value=-0.041876849985640979 0.022606028450859919 -0.036919865377247334 -0.042585423244879794 0.076707397472290773 -0.022015037591899596 0.15852074989905726 0.081567977322265506 0.19372042171858453 0.11028495604922582 0.017581842194531898 0.092296921071552102 0.01159690074356539 -0.0070873482219342672 -0.012831220808236496 -0.04144185408949852 -0.042550376057624822 -0.022624928747407264 -0.03044613687829538 -0.042132714514931044 -0.042138631750897666 -0.038263200595974926 -0.04158300842557635 -0.040522798895835876 -0.042178971121708556 -0.039969468216101332 -0.041181783554917674 -0.040918349761229295 -0.041551798582077026 -0.040738365708327874 -0.041715097427368168
leaf_weight=46 36 25 26 42 31 39 32 37 27 38 21 35 28 23 56 23 36 22 24 41 35 21 26 60 30 59 26 31 41 23
leaf_count=46 36 25 26 42 31 39 32 37 27 38 21 35 28 23 56 23 36 22 24 41 35 21 26 60 30 59 26 31 41 23
internal_value=0 0.443508 0.926552 1.64338 1.804 1.33123 1.75367 2.52209 3.17042 0.936653 2.70685 -0.448129 -0.641645 -0.788088 -0.662244 -0.74731 -0.679447 -0.788983 -0.73087 -0.803237 -0.819851 -0.828747 -0.826724 -0.832895 -0.822239 -0.815463 -0.830614 -0.821649 -0.820489 -0.843538
internal_weight=0 648 461 303 267 161 130 106 64 70 60 158 123 392 79 187 102 95 46 66 313 85 278 117 161 89 72 57 62 49
internal_count=1040 648 461 303 267 161 130 106 64 70 60 158 123 392 79 187 102 95 46 66 313 85 278 117 161 89 72 57 62 49
shrinkage=0.05


Tree=7
num_leaves=31
num_cat=0
split_feature=3 4 3 0 0 0 0 0 1 1 0 4 0 0 0 3 3 4 0 4 3 3 1 0 0 0 3 3 0 0
split_gain=334.358 336.399 409.984 52.3233 81.807 108.739 91.3683 61.2749 39.2278 25.6752 22.219 18.766 8.17615 1.41412 4.81782 0.932709 2.58618 0.27182 0.565924 0.163063 0.105973 0.0141017 0.00694452 0.0126881 0.00824648 0.0105517 0.00550922 0.00540502 0.00360386 0.00333715
threshold=8.5000000000000018 4.5000000000000009 18.500000000000004 2.5000000000000004 12.500000000000002 15.500000000000002 24.500000000000004 6.5000000000000009 8.5000000000000018 7.5000000000000009 18.500000000000004 3.5000000000000004 24.500000000000004 25.500000000000004 27.500000000000004 16.500000000000004 13.500000000000002 1.5000000000000002 10.500000000000002 5.5000000000000009 7.5000000000000009 18.500000000000004 8.5000000000000018 9.5000000000000018 12.500000000000002 16.500000000000004 4.5000000000000009 3.5000000000000004 12.500000000000002 12.500000000000002
decision_type=2 2 2 2 2 2 2 2 2 2 2 2 2 2 2 2 2 2 2 2 2 2 2 2 2 2 2 2 2 2
left_child=13 2 3 -2 7 -6 10 -5 -9 -8 -7 12 17 20 -15 16 19 29 -19 -3 22 -17 24 27 26 -26 -1 -24 -23 -4
right_child=1 15 11 4 5 6 9 8 -10 -11 -12 -13 -14 14 -16 21 -18 18 -20 -21 -22 28 23 -25 25 -27 -28 -29 -30 -31
leaf_value=-0.039783007360023 0.021475726179778578 -0.040564815174130832 -0.040456152535401857 0.072872028446623258 -0.02091428504115151 0.099146334009785814 0.077489578357199218 0.18403440484324018 0.10477071165417631 0.016702750209553512 0.16003383120586134 0.01101705669292382 -0.0067329805078251027 -0.012189657143924547 -0.039369761198759082 -0.04042285680770874 -0.021493682024690014 -0.028923830119046298 -0.04002607899407546 -0.035591962552643963 -0.036350040510296826 -0.039452903221050904 -0.038496659008356249 -0.040070022990306223 -0.037970994512240092 -0.039122694882295903 -0.038872432250242971 -0.03947420841263187 -0.038670280967888077 -0.039629342763320259
leaf_weight=46 36 34 26 42 31 31 32 37 27 38 29 35 28 23 56 23 36 22 24 32 35 24 26 60 30 59 26 31 38 23
leaf_count=46 36 34 26 42 31 31 32 37 27 38 29 35 28 23 56 23 36 22 24 32 35 24 26 60 30 59 26 31 38 23
internal_value=0 0.421333 0.880224 1.56121 1.7138 1.26466 1.66598 2.39598 3.0119 0.88982 2.57151 -0.425723 -0.609562 -0.748684 -0.629131 -0.709945 -0.645474 -0.749534 -0.694326 -0.763075 -0.778859 -0.78731 -0.785387 -0.79125 -0.781127 -0.77469 -0.789084 -0.780566 -0.779465 -0.801361
internal_weight=0 648 461 303 267 161 130 106 64 70 60 158 123 392 79 187 102 95 46 66 313 85 278 117 161 89 72 57 62 49
internal_count=1040 648 461 303 267 161 130 106 64 70 60 158 123 392 79 187 102 95 46 66 313 85 278 117 161 89 72 57 62 49
shrinkage=0.05


Tree=8
num_leaves=31
num_cat=0
split_feature=3 4 3 4 0 0 1 0 1 1 4 0 3 0 0 0 3 3 0 0 0 0 3 3 1 0 0 0 3 3
split_gain=301.758 303.6 370.01 49.2948 50.6733 118.665 111.209 101.023 20.4267 20.0371 16.9363 7.37898 3.24165 2.36467 1.27625 4.34809 0.84177 2.33403 0.667493 0.289098 0.928759 0.152814 0.0956406 0.0127268 0.00626744 0.011451 0.00744243 0.0095229 0.00497205 0.00487803
threshold=8.5000000000000018 4.5000000000000009 18.500000000000004 1.0000000180025095e-35 12.500000000000002 6.5000000000000009 8.5000000000000018 24.500000000000004 8.5000000000000018 7.5000000000000009 3.5000000000000004 24.500000000000004 14.500000000000002 9.5000000000000018 25.500000000000004 27.500000000000004 16.500000000000004 13.500000000000002 14.500000000000002 7.5000000000000009 12.500000000000002 12.500000000000002 7.5000000000000009 18.500000000000004 8.5000000000000018 9.5000000000000018 12.500000000000002 16.500000000000004 4.5000000000000009 3.5000000000000004
decision_type=2 2 2 2 2 2 2 2 2 2 2 2 2 2 2 2 2 2 2 2 2 2 2 2 2 2 2 2 2 2
left_child=14 2 3 18 5 8 7 12 -5 -9 11 19 -6 -7 22 -16 17 21 -2 -4 -21 -3 24 -18 26 29 28 -28 -1 -26
right_child=1 16 10 4 6 13 -8 9 -10 -11 -12 -13 -14 -15 15 -17 23 -19 -20 20 -22 -23 -24 -25 25 -27 27 -29 -30 -31
leaf_value=-0.037793855757816984 0.025811313671874815 -0.03316498026996851 -0.039565994181940636 0.036510566509712267 0.15552994861052588 0.15686726785368391 -0.018378035374917091 0.073615098028676593 0.094762801434154872 0.016736731179989875 0.010466202353792531 -0.0063963309928242651 0.12875489994883538 0.17895038073713132 -0.011580175031786381 -0.037401273101568225 -0.038401713967323309 -0.020418997772503646 0.037283509439744414 -0.024749266952276232 -0.037744081155820328 -0.038124748119493818 -0.034532538907868525 -0.037024570160335106 -0.036571826040744784 -0.038066521833340333 -0.036072445015112559 -0.037166559847734745 -0.036928811210852404 -0.037500497698783879
leaf_weight=46 32 25 31 34 26 27 32 32 27 30 35 28 20 22 23 56 23 36 21 20 44 41 35 62 26 60 30 59 26 31
leaf_count=46 32 25 31 34 26 27 32 32 27 30 35 28 20 22 23 56 23 36 21 20 44 41 35 62 26 60 30 59 26 31
internal_value=0 0.400266 0.836213 1.48315 1.66887 2.17678 1.26979 1.75494 1.24589 0.921866 -0.404437 -0.579084 2.87777 3.33564 -0.71125 -0.597675 -0.674448 -0.613201 0.607138 -0.712057 -0.673664 -0.724921 -0.739916 -0.747944 -0.746118 -0.751688 -0.74207 -0.735955 -0.74963 -0.741538
internal_weight=0 648 461 303 250 110 140 108 61 62 158 123 46 49 392 79 187 102 53 95 64 66 313 85 278 117 161 89 72 57
internal_count=1040 648 461 303 250 110 140 108 61 62 158 123 46 49 392 79 187 102 53 95 64 66 313 85 278 117 161 89 72 57
shrinkage=0.05


Tree=9
num_leaves=31
num_cat=0
split_feature=3 4 3 0 0 0 0 0 1 1 4 4 0 0 0 3 3 0 0 4 3 3 1 0 0 0 3 3 0 3
split_gain=272.337 273.999 333.934 46.4101 68.6184 90.0049 75.6456 48.876 34.1373 21.1111 19.9657 15.285 6.65953 1.15181 3.92415 0.759698 2.10646 0.260911 0.838205 0.147278 0.0863156 0.0114859 0.00565637 0.0103373 0.00671681 0.0085944 0.00544749 0.00448728 0.00326055 0.00310223
threshold=8.5000000000000018 4.5000000000000009 18.500000000000004 2.5000000000000004 12.500000000000002 15.500000000000002 24.500000000000004 6.5000000000000009 8.5000000000000018 7.5000000000000009 2.5000000000000004 3.5000000000000004 24.500000000000004 25.500000000000004 27.500000000000004 16.500000000000004 13.500000000000002 7.5000000000000009 12.500000000000002 5.5000000000000009 7.5000000000000009 18.500000000000004 8.5000000000000018 10.500000000000002 12.500000000000002 16.500000000000004 3.5000000000000004 4.5000000000000009 10.500000000000002 5.5000000000000009
decision_type=2 2 2 2 2 2 2 2 2 2 2 2 2 2 2 2 2 2 2 2 2 2 2 2 2 2 2 2 2 2
left_child=13 2 3 -2 7 -6 10 -5 -9 -8 -7 12 17 20 -15 16 19 -4 -19 -3 22 -17 24 26 27 -26 -24 -1 -23 -16
right_child=1 15 11 4 5 6 9 8 -10 -11 -12 -13 -14 14 29 21 -18 18 -20 -21 -22 28 23 -25 25 -27 -28 -29 -30 -31
leaf_value=-0.035904163575690727 0.017158079706132413 -0.036725155570927787 -0.037587694487264081 0.06696274951987323 -0.019488329464389432 0.13768532440448419 0.069934344070497909 0.16757251269914009 0.093630377865499936 0.014814493809459046 0.077214436020169946 0.0099428932368755343 -0.0060765149603996963 -0.011001167478768724 -0.035808590965138547 -0.036481629247250763 -0.019398048222582374 -0.02351180359721184 -0.035856876996430483 -0.031999122316483407 -0.032805912494659424 -0.035679984944207328 -0.0347707133868645 -0.036221630955642126 -0.034268823365370432 -0.035308231590157849 -0.035697383710316249 -0.035082371074419756 -0.034913842271013955 -0.035031924694776534
leaf_weight=46 36 34 31 42 31 39 32 37 27 38 21 35 28 23 36 23 36 20 44 32 35 21 29 53 30 59 35 26 41 20
leaf_count=46 36 34 31 42 31 39 32 37 27 38 21 35 28 23 36 23 36 20 44 32 35 21 29 53 30 59 35 26 41 20
internal_value=0 0.380253 0.794402 1.40899 1.5527 1.14136 1.50647 2.17748 2.72756 0.800243 2.33041 -0.384215 -0.55013 -0.675687 -0.567791 -0.640725 -0.582541 -0.676454 -0.639981 -0.688675 -0.70292 -0.710547 -0.708812 -0.714104 -0.704967 -0.699157 -0.70555 -0.712148 -0.703467 -0.710624
internal_weight=0 648 461 303 267 161 130 106 64 70 60 158 123 392 79 187 102 95 64 66 313 85 278 117 161 89 64 72 62 56
internal_count=1040 648 461 303 267 161 130 106 64 70 60 158 123 392 79 187 102 95 64 66 313 85 278 117 161 89 64 72 62 56
shrinkage=0.05


Tree=10
num_leaves=31
num_cat=0
split_feature=3 4 3 4 0 1 0 0 3 3 0 0 0 0 4 4 0 0 0 3 3 0 0 3 0 0 0 0 4 0
split_gain=280.466 264.067 290.142 42.6795 39.5071 78.1632 126.765 99.7378 34.3123 21.3223 21.102 42.559 10.4168 9.82847 1.8643 2.11035 1.58184 5.13283 1.39327 0.839259 2.41724 3.07059 0.186275 0.0700409 0.0261445 0.0764321 0.0109091 0.00220525 0.00218814 0.00689274
threshold=8.5000000000000018 4.5000000000000009 17.500000000000004 1.0000000180025095e-35 24.500000000000004 8.5000000000000018 13.500000000000002 4.5000000000000009 13.500000000000002 21.500000000000004 8.5000000000000018 13.500000000000002 21.500000000000004 28.500000000000004 1.5000000000000002 3.5000000000000004 25.500000000000004 27.500000000000004 14.500000000000002 16.500000000000004 12.500000000000002 13.500000000000002 10.500000000000002 7.5000000000000009 12.500000000000002 20.500000000000004 11.500000000000002 13.500000000000002 2.5000000000000004 14.500000000000002
decision_type=2 2 2 2 2 2 2 2 2 2 2 2 2 2 2 2 2 2 2 2 2 2 2 2 2 2 2 2 2 2
left_child=16 2 3 18 5 7 8 -5 -7 10 -4 -12 -13 -6 -9 -16 23 -18 -2 20 27 -22 -11 28 -21 -26 -25 -3 29 -1
right_child=1 19 9 4 13 6 -8 14 -10 22 11 12 -14 -15 15 -17 17 -19 -20 24 21 -23 -24 26 25 -27 -28 -29 -30 -31
leaf_value=-0.033805819646811779 0.023174555517336423 -0.033994059051786152 -0.032120083272457127 0.021935283392667773 0.061097452867972225 0.060608850335401879 -0.046653710034760563 0.15916456519202754 0.14024124909192323 -0.041993670094580882 0.075764831581286024 -0.034606483985077256 0.010087431874126196 0.019103628987531096 0.13515122462260096 0.15521691143512728 -0.005668499158776325 -0.033723105011241782 0.039391061821236063 -0.034482559654861689 -0.0047987941133959058 -0.029391740978850674 -0.035894667429308739 -0.032299426091568814 -0.030468489636074417 -0.034472824633121492 -0.030667759366333487 -0.03466684181114723 -0.033828129130002313 -0.032982129744581277
leaf_weight=81 27 21 34 20 38 31 22 22 24 21 21 22 32 22 38 20 23 56 26 32 22 30 31 21 22 26 20 29 169 37
leaf_count=81 27 21 34 20 38 31 22 22 24 21 21 22 32 22 38 20 23 56 26 32 22 30 31 21 22 26 20 29 169 37
internal_value=0 0.425902 0.836204 1.43383 1.61525 1.85296 1.09566 2.43608 1.90715 -0.240269 0.0110888 0.307338 -0.162424 0.913994 2.93543 2.84141 -0.638136 -0.511106 0.622596 -0.590833 -0.530694 -0.379741 -0.767155 -0.668732 -0.667511 -0.65275 -0.63007 -0.687685 -0.674255 -0.670951
internal_weight=0 633 451 290 237 177 77 100 55 161 109 75 54 60 80 58 407 79 53 182 102 52 52 328 80 48 41 50 287 118
internal_count=1040 633 451 290 237 177 77 100 55 161 109 75 54 60 80 58 407 79 53 182 102 52 52 328 80 48 41 50 287 118
shrinkage=0.05


Tree=11
num_leaves=31
num_cat=0
split_feature=3 4 3 4 0 1 0 0 3 3 0 0 0 1 4 4 0 0 0 3 3 0 3 3 0 0 3 0 0 4
split_gain=253.12 238.321 261.853 38.5182 35.6552 70.5422 114.406 90.0134 30.9669 19.2434 19.0445 38.4095 9.40119 9.01968 1.68253 1.90459 1.42761 4.63238 1.25743 0.757431 2.18156 2.77121 0.169382 0.0632119 0.026151 0.00984544 0.00611178 0.00204229 0.00199023 0.0019748
threshold=8.5000000000000018 4.5000000000000009 17.500000000000004 1.0000000180025095e-35 24.500000000000004 8.5000000000000018 13.500000000000002 4.5000000000000009 13.500000000000002 21.500000000000004 8.5000000000000018 13.500000000000002 21.500000000000004 7.5000000000000009 1.5000000000000002 3.5000000000000004 25.500000000000004 27.500000000000004 14.500000000000002 16.500000000000004 12.500000000000002 13.500000000000002 22.500000000000004 7.5000000000000009 19.500000000000004 11.500000000000002 19.500000000000004 29.500000000000004 13.500000000000002 2.5000000000000004
decision_type=2 2 2 2 2 2 2 2 2 2 2 2 2 2 2 2 2 2 2 2 2 2 2 2 2 2 2 2 2 2
left_child=16 2 3 18 5 7 8 -5 -7 10 -4 -12 -13 -6 -9 -16 23 -18 -2 20 28 -22 -11 29 26 -25 -21 -19 -3 -1
right_child=1 19 9 4 13 6 -8 14 -10 22 11 12 -14 -15 15 -17 17 27 -20 24 21 -23 -24 25 -26 -27 -28 -29 -30 -31
leaf_value=-0.031870166679560129 0.022015827661380175 -0.032294356610093798 -0.030514078839298561 0.020838519334793092 0.062165022256874272 0.057578407348163663 -0.04432102374055169 0.15120633532377808 0.13322918941266834 -0.033474233984947206 0.07197659183293581 -0.032876159792596643 0.0095830608916003257 0.023371319697591767 0.12839366377968539 0.14745606750249862 -0.0053850737602814391 -0.031700712442398075 0.037421508907125547 -0.033056605571792241 -0.0045588540082628073 -0.027922154006858671 -0.039185771897987082 -0.030684454987446472 -0.030539688169956211 -0.029134372100234032 -0.031936574290538658 -0.032308107902926785 -0.032933499792526515 -0.032136722676147374
leaf_weight=118 27 21 34 20 31 31 22 22 24 25 21 22 32 29 38 20 23 25 26 21 22 30 27 21 30 20 29 31 29 169
leaf_count=118 27 21 34 20 31 31 22 22 24 25 21 22 32 29 38 20 23 25 26 21 22 30 27 21 30 20 29 31 29 169
internal_value=0 0.404607 0.794393 1.36214 1.53448 1.76031 1.04087 2.31428 1.81179 -0.228256 0.0105343 0.291971 -0.154303 0.868295 2.78865 2.69934 -0.60623 -0.485551 0.591467 -0.561291 -0.504159 -0.360754 -0.728797 -0.635296 -0.634135 -0.598566 -0.64814 -0.640739 -0.653301 -0.640543
internal_weight=0 633 451 290 237 177 77 100 55 161 109 75 54 60 80 58 407 79 53 182 102 52 52 328 80 41 50 56 50 287
internal_count=1040 633 451 290 237 177 77 100 55 161 109 75 54 60 80 58 407 79 53 182 102 52 52 328 80 41 50 56 50 287
shrinkage=0.05


Tree=12
num_leaves=31
num_cat=0
split_feature=3 4 3 0 0 0 0 0 4 3 0 0 0 1 0 3 0 0 3 3 0 0 3 0 0 3 0 0 4 0
split_gain=228.441 215.084 236.322 34.9633 43.9166 89.2123 55.2016 54.352 23.0627 17.3672 17.1877 34.6645 12.6609 18.498 8.48458 1.29235 1.28842 4.18072 0.683582 1.96885 2.50101 0.167986 0.0570488 0.0236013 0.00888552 0.00551587 0.00184316 0.00179619 0.00178225 0.00622071
threshold=8.5000000000000018 4.5000000000000009 17.500000000000004 28.500000000000004 16.500000000000004 13.500000000000002 2.5000000000000004 24.500000000000004 1.0000000180025095e-35 21.500000000000004 8.5000000000000018 13.500000000000002 6.5000000000000009 8.5000000000000018 21.500000000000004 12.500000000000002 25.500000000000004 27.500000000000004 16.500000000000004 12.500000000000002 13.500000000000002 10.500000000000002 7.5000000000000009 19.500000000000004 11.500000000000002 19.500000000000004 29.500000000000004 13.500000000000002 2.5000000000000004 14.500000000000002
decision_type=2 2 2 2 2 2 2 2 2 2 2 2 2 2 2 2 2 2 2 2 2 2 2 2 2 2 2 2 2 2
left_child=16 2 3 4 5 6 -2 15 -8 10 -4 -12 -10 -14 -13 -6 22 -18 19 27 -21 -11 28 25 -24 -20 -19 -3 29 -1
right_child=1 18 9 -5 7 -7 8 -9 12 21 11 14 13 -15 -16 -17 17 26 23 20 -22 -23 24 -25 -26 -27 -28 -29 -30 -31
leaf_value=-0.030522020621064266 0.015745317929734787 -0.030679638329006376 -0.028988375197000368 0.014519851459490677 0.12727839418432929 -0.010292764504750571 0.045784508738489382 0.055699995552238674 0.07537458813861192 -0.038070687225886753 0.068377760797739037 -0.03123235228386792 0.1476205863058567 0.091011795756076611 0.0091039070568513132 0.14389443659782411 -0.0051158210505609925 -0.030115677475929262 -0.031403775158382601 -0.0043309116228060288 -0.026526046221454942 -0.03227882856322873 -0.029150231679280599 -0.029012704590956367 -0.027677652686834336 -0.030339746331346448 -0.030692702820224151 -0.031286824777208531 -0.030529886343070037 -0.029739514879278235
leaf_weight=81 30 21 34 31 22 39 21 38 26 21 21 22 27 31 32 25 23 25 21 22 30 31 21 30 20 29 31 29 169 37
leaf_count=81 30 21 34 31 22 39 21 38 26 21 21 22 27 31 32 25 23 25 21 22 30 31 21 30 20 29 31 29 169 37
internal_value=0 0.384377 0.754674 1.29403 1.41416 1.12635 1.51121 2.00331 1.85302 -0.216843 0.0100076 0.277372 2.08735 2.34728 -0.146588 2.72233 -0.575918 -0.461273 -0.533227 -0.478951 -0.342716 -0.692357 -0.603531 -0.602428 -0.568638 -0.615733 -0.608702 -0.620636 -0.608515 -0.605533
internal_weight=0 633 451 290 259 174 135 85 105 161 109 75 84 58 54 47 407 79 182 102 52 52 328 80 41 50 56 50 287 118
internal_count=1040 633 451 290 259 174 135 85 105 161 109 75 84 58 54 47 407 79 182 102 52 52 328 80 41 50 56 50 287 118
shrinkage=0.05


Tree=13
num_leaves=31
num_cat=0
split_feature=3 4 3 4 0 1 0 0 0 3 3 0 0 3 4 4 0 0 0 3 3 4 3 3 0 0 3 0 4 0
split_gain=206.168 194.114 213.281 32.8261 29.3261 45.322 97.2153 60.1773 32.4181 28.0712 16.111 12.622 11.8626 2.64516 2.09715 1.9072 1.1628 3.7731 1.05859 0.616933 1.82337 0.156047 0.152746 0.0514865 0.0213002 0.00801918 0.00497807 0.00166345 0.00160848 0.00561421
threshold=8.5000000000000018 4.5000000000000009 17.500000000000004 1.0000000180025095e-35 26.500000000000004 8.5000000000000018 13.500000000000002 4.5000000000000009 24.500000000000004 13.500000000000002 20.500000000000004 7.5000000000000009 14.500000000000002 21.500000000000004 1.5000000000000002 3.5000000000000004 25.500000000000004 27.500000000000004 14.500000000000002 16.500000000000004 13.500000000000002 5.5000000000000009 22.500000000000004 7.5000000000000009 19.500000000000004 11.500000000000002 19.500000000000004 29.500000000000004 2.5000000000000004 14.500000000000002
decision_type=2 2 2 2 2 2 2 2 2 2 2 2 2 2 2 2 2 2 2 2 2 2 2 2 2 2 2 2 2 2
left_child=16 2 3 18 5 7 9 -5 14 -7 11 -4 -13 -12 -9 -16 23 -18 -2 20 21 -3 -15 28 26 -25 -21 -19 29 -1
right_child=1 19 10 4 -6 6 -8 8 -10 -11 13 12 -14 22 15 -17 17 27 -20 24 -22 -23 -24 25 -26 -27 -28 -29 -30 -31
leaf_value=-0.028995919853080938 0.018959579706467965 -0.030529770851135254 -0.026903740045699204 0.017071376144886016 0.029791740812838842 0.051342361454942059 -0.041590335423296154 0.13965913969176738 0.056712380690234043 0.12336931145594765 -0.013825306442699262 0.047630249779848831 0.00080447430281262655 -0.030070744037628175 0.11495111286640168 0.13402660995721818 -0.004860028365383978 -0.028609893918037418 0.033094813316487351 -0.029833586159206574 -0.014074458444098893 -0.025582253187894824 -0.035494559230627838 -0.027692720187561855 -0.027562069396177932 -0.026293769925832752 -0.028822758691064244 -0.029158067991656645 -0.029003391868969393 -0.028252538313736787
leaf_weight=81 27 30 22 20 39 31 22 22 21 24 28 21 38 25 38 20 23 25 26 21 38 34 27 21 30 20 29 31 169 37
leaf_count=81 27 30 22 20 39 31 22 22 21 24 28 21 38 25 38 20 23 25 26 21 38 34 27 21 30 20 29 31 169 37
internal_value=0 0.365158 0.71694 1.22933 1.38843 1.54455 0.944802 1.92621 2.24003 1.65545 -0.206001 0.108376 0.349426 -0.524308 2.53029 2.43058 -0.547122 -0.43821 0.517877 -0.506566 -0.455004 -0.558028 -0.657739 -0.573354 -0.572307 -0.540206 -0.584946 -0.578267 -0.57809 -0.575257
internal_weight=0 633 451 290 237 198 77 121 101 55 161 81 59 80 80 58 407 79 53 182 102 64 52 328 80 41 50 56 287 118
internal_count=1040 633 451 290 237 198 77 121 101 55 161 81 59 80 80 58 407 79 53 182 102 64 52 328 80 41 50 56 287 118
shrinkage=0.05


Tree=14
num_leaves=31
num_cat=0
split_feature=3 4 3 4 0 1 0 0 0 3 3 0 0 3 4 4 0 0 0 0 3 3 4 0 3 0 0 3 0 4
split_gain=186.067 175.188 192.486 29.6256 26.4668 40.9031 87.7368 54.31 29.2573 25.3342 14.5402 11.5395 5.58309 2.38726 1.89268 1.72125 1.04942 3.40523 0.955376 0.593261 0.84892 2.52432 0.155852 0.151493 0.0464666 0.0371692 0.0072373 0.00449272 0.00150127 0.00145166
threshold=8.5000000000000018 4.5000000000000009 17.500000000000004 1.0000000180025095e-35 26.500000000000004 8.5000000000000018 13.500000000000002 4.5000000000000009 24.500000000000004 13.500000000000002 20.500000000000004 8.5000000000000018 15.500000000000002 21.500000000000004 1.5000000000000002 3.5000000000000004 25.500000000000004 27.500000000000004 14.500000000000002 29.500000000000004 16.500000000000004 13.500000000000002 5.5000000000000009 10.500000000000002 7.5000000000000009 19.500000000000004 11.500000000000002 19.500000000000004 29.500000000000004 2.5000000000000004
decision_type=2 2 2 2 2 2 2 2 2 2 2 2 2 2 2 2 2 2 2 2 2 2 2 2 2 2 2 2 2 2
left_child=16 2 3 18 5 7 9 -5 14 -7 11 -4 -13 -12 -9 -16 24 -18 -2 20 21 22 -3 -15 29 27 -26 -22 -19 -1
right_child=1 19 10 4 -6 6 -8 8 -10 -11 13 12 -14 23 15 -17 17 28 -20 -21 25 -23 -24 -25 26 -27 -28 -29 -30 -31
leaf_value=-0.027324684077905399 0.018011601514148493 -0.029033245623111728 -0.023097391082905233 0.016217807829380034 0.028302153951536197 0.048775242593499926 -0.039510818774049938 0.13267618089236996 0.053876761311576482 0.1172008446417749 -0.013134041694658144 0.037383790483528918 0.0050578905379070963 -0.034521562925406861 0.10920355684663122 0.12732527852058412 -0.0046170295580573711 -0.027179398715496062 0.031440073538285034 -0.031567574972691741 -0.0283419071208863 -0.0084918573993491009 -0.02372721268404876 -0.029021380216844625 -0.026308083747114453 -0.025278275779315403 -0.024979081898927689 -0.027381620119357932 -0.027700164625721592 -0.027553222526812693
leaf_weight=118 27 25 25 20 39 31 22 22 21 24 28 22 34 21 38 20 23 25 26 23 21 32 31 31 21 21 20 29 31 169
leaf_count=118 27 25 25 20 39 31 22 22 21 24 28 22 34 21 38 20 23 25 26 23 21 32 31 31 21 21 20 29 31 169
internal_value=0 0.3469 0.681093 1.16786 1.31901 1.46732 0.897562 1.8299 2.12803 1.57267 -0.195701 0.102957 0.355147 -0.498092 2.40378 2.30905 -0.519766 -0.416299 0.491983 -0.481237 -0.459523 -0.39389 -0.52192 -0.624852 -0.544687 -0.540871 -0.513196 -0.555699 -0.549354 -0.549185
internal_weight=0 633 451 290 237 198 77 121 101 55 161 81 56 80 80 58 407 79 53 182 159 88 56 52 328 71 41 50 56 287
internal_count=1040 633 451 290 237 198 77 121 101 55 161 81 56 80 80 58 407 79 53 182 159 88 56 52 328 71 41 50 56 287
shrinkage=0.05


Tree=15
num_leaves=31
num_cat=0
split_feature=3 4 3 0 0 1 0 0 0 1 4 1 0 3 0 0 0 4 3 3 3 0 0 4 3 3 1 0 3 0
split_gain=144.263 140.531 192.532 41.485 59.4469 58.8534 45.3621 25.2211 23.7569 14.5995 9.8734 8.72418 3.74184 1.68136 1.09578 4.12231 0.748889 0.67206 0.486337 0.417687 1.93762 0.189916 0.247551 0.171149 0.0745657 0.0208558 0.00344249 0.00824894 0.00551227 0.00384376
threshold=8.5000000000000018 4.5000000000000009 18.500000000000004 2.5000000000000004 12.500000000000002 8.5000000000000018 24.500000000000004 6.5000000000000009 18.500000000000004 8.5000000000000018 3.5000000000000004 7.5000000000000009 24.500000000000004 13.500000000000002 25.500000000000004 27.500000000000004 10.500000000000002 1.5000000000000002 21.500000000000004 15.500000000000002 13.500000000000002 10.500000000000002 20.500000000000004 5.5000000000000009 7.5000000000000009 13.500000000000002 8.5000000000000018 9.5000000000000018 2.5000000000000004 12.500000000000002
decision_type=2 2 2 2 2 2 2 2 2 2 2 2 2 2 2 2 2 2 2 2 2 2 2 2 2 2 2 2 2 2
left_child=14 2 3 -2 7 6 8 -5 -6 13 12 -8 16 -9 24 -16 17 -4 -18 20 23 -21 -23 -3 26 -13 28 -28 29 -1
right_child=1 19 10 4 5 -7 11 9 -10 -11 -12 25 -14 -15 15 -17 18 -19 -20 21 -22 22 -24 -25 -26 -27 27 -29 -30 -31
leaf_value=-0.026705098563227159 0.0018836820246400062 -0.027398200622863241 -0.02897426239822222 0.055614230269566182 0.054356400966644292 -0.019223914646050513 0.04840618809019881 0.13528448775410654 0.11677128235178609 0.077959029749035846 0.0067125411497222058 0.011099231597923098 -0.0053918110129113003 0.11478228718042374 -0.00023389912786937899 -0.026210474435772214 -0.035537526492149606 -0.017013652063906193 -0.025536881536245351 -0.028394981992967201 -0.0087289556190371514 -0.020566302345645045 -0.026993158125671848 -0.022284708019966883 -0.02357583849088234 0.013355290135368706 -0.025830345126715577 -0.026685043501442879 -0.025689491042150903 -0.025910333078354598
leaf_weight=29 37 36 23 40 30 34 28 20 31 28 36 21 24 20 21 56 31 24 20 33 25 31 29 30 34 20 55 58 104 32
leaf_count=29 37 36 23 40 30 34 28 20 31 28 36 21 24 20 21 56 31 24 20 33 25 31 29 30 34 20 55 58 104 32
internal_value=0 0.280357 0.571996 1.03113 1.16627 0.786897 1.09326 1.74236 1.72151 2.113 -0.325935 0.537844 -0.461728 2.50067 -0.489355 -0.382519 -0.548395 -0.457334 -0.632314 -0.459836 -0.41167 -0.506966 -0.473452 -0.501478 -0.515722 0.243995 -0.521129 -0.525381 -0.518216 -0.525763
internal_weight=0 651 467 309 272 164 130 108 61 68 158 69 122 40 389 77 98 47 51 184 91 93 60 66 312 41 278 113 165 61
internal_count=1040 651 467 309 272 164 130 108 61 68 158 69 122 40 389 77 98 47 51 184 91 93 60 66 312 41 278 113 165 61
shrinkage=0.05


Tree=16
num_leaves=31
num_cat=0
split_feature=3 4 3 0 0 0 0 0 0 1 3 4 0 0 0 0 0 0 0 3 3 0 0 4 3 1 0 3 0 3
split_gain=130.197 126.829 173.939 34.302 49.8572 54.4072 40.8211 25.5164 19.7029 18.6768 14.5637 15.1937 15.2382 7.83461 2.64038 2.6383 1.69176 0.988943 3.72038 0.376963 1.7487 0.171399 0.223415 0.154462 0.0672955 0.00310685 0.00744468 0.00497483 0.003469 0.00281617
threshold=8.5000000000000018 4.5000000000000009 17.500000000000004 2.5000000000000004 12.500000000000002 15.500000000000002 24.500000000000004 18.500000000000004 6.5000000000000009 8.5000000000000018 20.500000000000004 1.5000000000000002 13.500000000000002 28.500000000000004 25.500000000000004 8.5000000000000018 15.500000000000002 25.500000000000004 27.500000000000004 15.500000000000002 13.500000000000002 10.500000000000002 20.500000000000004 5.5000000000000009 7.5000000000000009 8.5000000000000018 9.5000000000000018 2.5000000000000004 12.500000000000002 3.5000000000000004
decision_type=2 2 2 2 2 2 2 2 2 2 2 2 2 2 2 2 2 2 2 2 2 2 2 2 2 2 2 2 2 2
left_child=17 2 3 -2 8 -6 7 -7 -5 -10 11 -4 -13 -8 15 -12 -17 24 -19 20 23 -21 -23 -3 25 27 29 28 -1 -27
right_child=1 19 10 4 5 6 13 -9 9 -11 14 12 -14 -15 -16 16 -18 18 -20 21 -22 22 -24 -25 -26 26 -28 -29 -30 -31
leaf_value=-0.025369844046132319 0.0043513592445489141 -0.026028290184007753 -0.02160247684352928 0.057204385991725663 -0.0209825999520976 0.053118040386972758 0.044403830983422023 0.12003543313060488 0.12769503610474722 0.071749493995538136 -0.030997098684310914 0.047211274321846387 -0.0041680937032065081 0.0090992199629545221 -0.040039101280272008 -0.0019636771218343218 -0.021572105044668374 -0.00022220469656444733 -0.024899950596903052 -0.026975232994917671 -0.008292508004233241 -0.019537987391794881 -0.025643500248933662 -0.021170472241938118 -0.022397046634817827 -0.024200056955732151 -0.025350791781113064 -0.02440501660681688 -0.024614816438406708 -0.024916687550453041
leaf_weight=29 33 36 36 36 29 29 33 28 35 26 30 27 31 30 20 22 22 21 56 33 25 31 29 30 34 29 58 104 32 26
leaf_count=29 33 36 36 36 29 29 33 28 35 26 30 27 31 30 20 22 22 21 56 33 25 31 29 30 34 29 58 104 32 26
internal_value=0 0.266339 0.543397 1.04437 1.1728 0.80956 1.10662 1.71979 1.73076 2.07699 -0.200072 0.0782562 0.394998 0.551842 -0.4784 -0.39127 -0.235358 -0.464888 -0.363393 -0.436844 -0.391087 -0.481618 -0.44978 -0.476404 -0.489936 -0.495072 -0.499112 -0.492306 -0.499475 -0.490777
internal_weight=0 651 467 279 246 149 120 57 97 61 188 94 58 63 94 74 44 389 77 184 91 93 60 66 312 278 113 165 61 55
internal_count=1040 651 467 279 246 149 120 57 97 61 188 94 58 63 94 74 44 389 77 184 91 93 60 66 312 278 113 165 61 55
shrinkage=0.05


Tree=17
num_leaves=31
num_cat=0
split_feature=3 4 3 0 0 1 0 0 0 1 4 0 0 3 0 0 0 0 0 3 3 3 0 0 4 3 1 0 3 0
split_gain=117.503 114.463 157.891 34.1595 48.55 49.7199 37.7622 20.7389 18.7341 11.906 8.58414 7.70087 3.67142 1.31435 1.02158 8.46481 0.678448 0.65002 0.512641 0.441455 0.340209 1.5782 0.154688 0.201632 0.139402 0.0553467 0.00346906 0.00671882 0.00617686 0.00286683
threshold=8.5000000000000018 4.5000000000000009 18.500000000000004 2.5000000000000004 12.500000000000002 8.5000000000000018 24.500000000000004 6.5000000000000009 18.500000000000004 8.5000000000000018 3.5000000000000004 28.500000000000004 24.500000000000004 13.500000000000002 26.500000000000004 23.500000000000004 10.500000000000002 28.500000000000004 5.5000000000000009 21.500000000000004 15.500000000000002 13.500000000000002 10.500000000000002 20.500000000000004 5.5000000000000009 7.5000000000000009 8.5000000000000018 9.5000000000000018 2.5000000000000004 12.500000000000002
decision_type=2 2 2 2 2 2 2 2 2 2 2 2 2 2 2 2 2 2 2 2 2 2 2 2 2 2 2 2 2 2
left_child=14 2 3 -2 7 6 8 -5 -6 13 12 -8 16 -9 15 25 18 -16 -4 -18 21 24 -22 -24 -3 26 28 -28 -1 -30
right_child=1 20 10 4 5 -7 11 9 -10 -11 -12 -13 -14 -15 17 -17 19 -19 -20 -21 22 -23 23 -25 -26 -27 27 -29 29 -31
leaf_value=-0.02376266054131768 0.0015262377624576159 -0.024726875830027792 -0.026034393429756164 0.050195299719925972 0.050162671506404882 -0.018242874117020299 0.040324024059292342 0.12213551208376885 0.10558817086200561 0.070561240613460544 0.0066082890455921488 0.006884806184098125 -0.0036497753152313333 0.10400853544473648 -0.033652908824108263 0.0070423902869224553 -0.033199662691162479 -0.023709132096597127 -0.01556926809928634 -0.023671642690896989 -0.025626471006509027 -0.0078778824380133297 -0.018561088029415376 -0.024361325055360795 -0.020111949024721982 -0.021296301210531967 -0.023311886353926226 -0.024083252071306627 -0.023351964354515076 -0.022801129960201005
leaf_weight=55 37 36 25 40 30 34 36 20 31 28 36 33 24 20 27 25 31 42 22 20 33 25 31 29 30 32 55 58 51 44
leaf_count=55 37 36 25 40 30 34 36 20 31 28 36 33 24 20 27 25 31 42 22 20 33 25 31 29 30 32 55 58 51 44
internal_value=0 0.253022 0.516227 0.932013 1.05464 0.711795 0.993381 1.57526 1.56659 1.91135 -0.296924 0.486627 -0.423541 2.26144 -0.441643 -0.417847 -0.509389 -0.552004 -0.422716 -0.589264 -0.415002 -0.371533 -0.457537 -0.427291 -0.452584 -0.465194 -0.469972 -0.474156 -0.466819 -0.461937
internal_weight=0 651 467 309 272 164 130 108 61 68 158 69 122 40 389 320 98 69 47 51 184 91 93 60 66 295 263 113 150 95
internal_count=1040 651 467 309 272 164 130 108 61 68 158 69 122 40 389 320 98 69 47 51 184 91 93 60 66 295 263 113 150 95
shrinkage=0.05


Tree=18
num_leaves=31
num_cat=0
split_feature=3 4 3 0 0 0 0 4 0 1 3 4 0 1 0 0 0 0 0 3 3 0 0 4 3 0 1 0 0 0
split_gain=106.046 103.303 143.62 27.9707 40.6482 46.0252 34.0927 22.1866 16.0029 15.4952 12.2544 13.4865 13.3581 7.31652 2.59672 2.38532 1.53741 0.928398 3.24341 0.307038 1.42433 0.139606 0.181973 0.12581 0.0548574 0.0100356 0.00290705 0.00606373 0.00518588 0.00576852
threshold=8.5000000000000018 4.5000000000000009 17.500000000000004 2.5000000000000004 12.500000000000002 15.500000000000002 24.500000000000004 2.5000000000000004 6.5000000000000009 8.5000000000000018 20.500000000000004 1.5000000000000002 13.500000000000002 7.5000000000000009 25.500000000000004 8.5000000000000018 15.500000000000002 25.500000000000004 27.500000000000004 15.500000000000002 13.500000000000002 10.500000000000002 20.500000000000004 5.5000000000000009 7.5000000000000009 22.500000000000004 8.5000000000000018 9.5000000000000018 12.500000000000002 16.500000000000004
decision_type=2 2 2 2 2 2 2 2 2 2 2 2 2 2 2 2 2 2 2 2 2 2 2 2 2 2 2 2 2 2
left_child=17 2 3 -2 8 -6 7 -7 -5 -10 11 -4 -13 -8 15 -12 -17 24 -19 20 23 -21 -23 -3 25 26 28 -28 -1 -30
right_child=1 19 10 4 5 6 13 -9 9 -11 14 12 -14 -15 -16 16 -18 18 -20 21 -22 22 -24 -25 -26 -27 27 -29 29 -31
leaf_value=-0.022448575086891652 0.0040574789047241209 -0.023490531949533357 -0.020531445710609358 0.051834401637057048 -0.019846910752099139 0.10218600564532809 0.04531915184970086 0.037517692219643371 0.11559194598879133 0.064633956762890396 -0.028574523627758027 0.044139954420151534 -0.003965422511100769 0.010708868336184202 -0.038008528877981007 -0.0009442227807911959 -0.019636743854392659 0.00069640193666730614 -0.022345199143247948 -0.024345147293625455 -0.0074839885104447598 -0.017633033615927544 -0.023143259153283878 -0.019106351460019749 -0.020295728340416271 -0.023423678784266766 -0.022146292084997354 -0.022879089312306769 -0.021232475340366364 -0.022222624170152763
leaf_weight=80 33 36 36 36 29 36 26 21 35 26 30 27 31 37 20 22 22 21 56 33 25 31 29 30 34 23 55 58 24 38
leaf_count=80 33 36 36 36 29 36 26 21 35 26 30 27 31 37 20 22 22 21 56 33 25 31 29 30 34 23 55 58 24 38
internal_value=0 0.240371 0.490415 0.945639 1.06161 0.733629 1.00685 1.56722 1.56541 1.87744 -0.185156 0.0701529 0.368569 0.49985 -0.440465 -0.354059 -0.20581 -0.419561 -0.321223 -0.394252 -0.352956 -0.43466 -0.405926 -0.429954 -0.443831 -0.448468 -0.446663 -0.450448 -0.443651 -0.436787
internal_weight=0 651 467 279 246 149 120 57 97 61 188 94 58 63 94 74 44 389 77 184 91 93 60 66 312 278 255 113 142 62
internal_count=1040 651 467 279 246 149 120 57 97 61 188 94 58 63 94 74 44 389 77 184 91 93 60 66 312 278 255 113 142 62
shrinkage=0.05


Tree=19
num_leaves=31
num_cat=0
split_feature=3 4 3 0 0 0 0 4 4 0 3 4 0 1 1 0 0 0 0 0 0 0 3 0 0 4 3 3 1 3
split_gain=95.7069 93.2311 129.617 25.2435 36.9726 64.3132 30.7687 20.0234 12.2551 12.4392 11.0596 12.1715 12.0557 7.94776 6.60316 2.34354 2.15275 1.38751 0.975027 7.46307 0.657561 0.307385 0.986375 0.13707 0.262674 0.110797 0.0451291 0.0199717 0.0028898 0.00555449
threshold=8.5000000000000018 4.5000000000000009 17.500000000000004 2.5000000000000004 13.500000000000002 15.500000000000002 24.500000000000004 2.5000000000000004 1.0000000180025095e-35 6.5000000000000009 20.500000000000004 1.5000000000000002 13.500000000000002 8.5000000000000018 7.5000000000000009 25.500000000000004 8.5000000000000018 15.500000000000002 26.500000000000004 23.500000000000004 28.500000000000004 12.500000000000002 15.500000000000002 29.500000000000004 19.500000000000004 5.5000000000000009 7.5000000000000009 14.500000000000002 8.5000000000000018 2.5000000000000004
decision_type=2 2 2 2 2 2 2 2 2 2 2 2 2 2 2 2 2 2 2 2 2 2 2 2 2 2 2 2 2 2
left_child=18 2 3 -2 8 -6 7 -7 -5 -10 11 -4 -13 -11 -8 16 -12 -18 19 26 -20 22 -3 24 27 -26 28 -23 29 -1
right_child=1 21 10 4 5 6 14 -9 9 13 15 12 -14 -15 -16 -17 17 -19 20 -21 -22 23 -24 -25 25 -27 -28 -29 -30 -31
leaf_value=-0.021461365575140175 0.0038546060070847026 -0.0096350700332550332 -0.019504873092389768 0.037673807474784556 -0.047022955474399386 0.097076704601446795 0.043053194622580823 0.03564180653719675 0.05459495145699074 0.1137756533920765 -0.027145796914895378 0.041932955825770342 -0.0037671517340406298 0.076102823963654906 0.010173425072099309 -0.036108101825229826 -0.00089701095765287232 -0.018654906614260239 -0.031407708481506064 0.0074630211591720577 -0.021406415956360954 -0.021232095337472858 -0.021412545219063758 -0.023628558456897736 -0.014554562538862229 -0.01954748218879104 -0.019216699302342023 -0.02341520654037595 -0.021396297044986121 -0.020829980279269973
leaf_weight=55 33 32 36 20 21 36 26 21 29 28 30 27 31 28 37 20 22 22 27 25 42 22 40 25 25 20 32 20 113 95
leaf_count=55 33 32 36 20 21 36 26 21 29 28 30 27 31 28 37 20 22 22 27 25 42 22 40 25 25 20 32 20 113 95
internal_value=0 0.228353 0.465895 0.898357 1.00853 0.67398 0.956507 1.48886 1.45778 1.62349 -0.175898 0.0666452 0.350141 1.89878 0.474857 -0.418442 -0.336356 -0.195519 -0.398583 -0.375335 -0.506399 -0.374539 -0.323562 -0.40731 -0.388557 -0.335473 -0.419792 -0.445433 -0.424107 -0.42123
internal_weight=0 651 467 279 246 141 120 57 105 85 188 94 58 56 63 94 74 44 389 320 69 184 72 112 87 45 295 42 263 150
internal_count=1040 651 467 279 246 141 120 57 105 85 188 94 58 56 63 94 74 44 389 320 69 184 72 112 87 45 295 42 263 150
shrinkage=0.05


end of trees

feature importances:
day=299
hour=162
weekday=87
month=52

parameters:
[boosting: gbdt]
[objective: regression]
[metric: l2,l1]
[tree_learner: serial]
[device_type: cpu]
[data: ]
[valid: ]
[num_iterations: 100]
[learning_rate: 0.05]
[num_leaves: 31]
[num_threads: 0]
[max_depth: -1]
[min_data_in_leaf: 20]
[min_sum_hessian_in_leaf: 0.001]
[bagging_fraction: 0.8]
[pos_bagging_fraction: 1]
[neg_bagging_fraction: 1]
[bagging_freq: 5]
[bagging_seed: 3]
[feature_fraction: 0.9]
[feature_fraction_bynode: 1]
[feature_fraction_seed: 2]
[early_stopping_round: 0]
[first_metric_only: 0]
[max_delta_step: 0]
[lambda_l1: 0]
[lambda_l2: 0]
[min_gain_to_split: 0]
[drop_rate: 0.1]
[max_drop: 50]
[skip_drop: 0.5]
[xgboost_dart_mode: 0]
[uniform_drop: 0]
[drop_seed: 4]
[top_rate: 0.2]
[other_rate: 0.1]
[min_data_per_group: 100]
[max_cat_threshold: 32]
[cat_l2: 10]
[cat_smooth: 10]
[max_cat_to_onehot: 4]
[top_k: 20]
[monotone_constraints: ]
[feature_contri: ]
[forcedsplits_filename: ]
[forcedbins_filename: ]
[refit_decay_rate: 0.9]
[cegb_tradeoff: 1]
[cegb_penalty_split: 0]
[cegb_penalty_feature_lazy: ]
[cegb_penalty_feature_coupled: ]
[verbosity: 0]
[max_bin: 255]
[max_bin_by_feature: ]
[min_data_in_bin: 3]
[bin_construct_sample_cnt: 200000]
[histogram_pool_size: -1]
[data_random_seed: 1]
[output_model: LightGBM_model.txt]
[snapshot_freq: -1]
[input_model: ]
[output_result: LightGBM_predict_result.txt]
[initscore_filename: ]
[valid_data_initscores: ]
[pre_partition: 0]
[enable_bundle: 1]
[max_conflict_rate: 0]
[is_enable_sparse: 1]
[sparse_threshold: 0.8]
[use_missing: 1]
[zero_as_missing: 0]
[two_round: 0]
[save_binary: 0]
[header: 0]
[label_column: ]
[weight_column: ]
[group_column: ]
[ignore_column: ]
[categorical_feature: ]
[predict_raw_score: 0]
[predict_leaf_index: 0]
[predict_contrib: 0]
[num_iteration_predict: -1]
[pred_early_stop: 0]
[pred_early_stop_freq: 10]
[pred_early_stop_margin: 10]
[convert_model_language: ]
[convert_model: gbdt_prediction.cpp]
[num_class: 1]
[is_unbalance: 0]
[scale_pos_weight: 1]
[sigmoid: 1]
[boost_from_average: 1]
[reg_sqrt: 0]
[alpha: 0.9]
[fair_c: 1]
[poisson_max_delta_step: 0.7]
[tweedie_variance_power: 1.5]
[max_position: 20]
[lambdamart_norm: 1]
[label_gain: ]
[metric_freq: 1]
[is_provide_training_metric: 0]
[eval_at: ]
[multi_error_top_k: 1]
[num_machines: 1]
[local_listen_port: 12400]
[time_out: 120]
[machine_list_filename: ]
[machines: ]
[gpu_platform_id: -1]
[gpu_device_id: -1]
[gpu_use_dp: 0]

end of parameters

pandas_categorical:[]
